digraph Tree {
node [shape=box, style="filled, rounded", color="black", fontname="helvetica"] ;
edge [fontname="helvetica"] ;
0 [label="petal width (cm) <= 0.7\ngini = 0.66\nsamples = 94\nvalue = [45, 57, 48]\nclass = versicolor", fillcolor="#eefdf4"] ;
1 [label="gini = 0.0\nsamples = 27\nvalue = [45, 0, 0]\nclass = setosa", fillcolor="#e58139"] ;
0 -> 1 [labeldistance=2.5, labelangle=45, headlabel="True"] ;
2 [label="petal length (cm) <= 4.75\ngini = 0.5\nsamples = 67\nvalue = [0, 57, 48]\nclass = versicolor", fillcolor="#e0fbeb"] ;
0 -> 2 [labeldistance=2.5, labelangle=-45, headlabel="False"] ;
3 [label="petal width (cm) <= 1.65\ngini = 0.04\nsamples = 32\nvalue = [0, 51, 1]\nclass = versicolor", fillcolor="#3de683"] ;
2 -> 3 ;
4 [label="gini = 0.0\nsamples = 31\nvalue = [0, 51, 0]\nclass = versicolor", fillcolor="#39e581"] ;
3 -> 4 ;
5 [label="gini = 0.0\nsamples = 1\nvalue = [0, 0, 1]\nclass = virginica", fillcolor="#8139e5"] ;
3 -> 5 ;
6 [label="petal width (cm) <= 1.75\ngini = 0.2\nsamples = 35\nvalue = [0, 6, 47]\nclass = virginica", fillcolor="#9152e8"] ;
2 -> 6 ;
7 [label="petal length (cm) <= 5.35\ngini = 0.48\nsamples = 7\nvalue = [0, 6, 4]\nclass = versicolor", fillcolor="#bdf6d5"] ;
6 -> 7 ;
8 [label="sepal width (cm) <= 2.35\ngini = 0.24\nsamples = 5\nvalue = [0, 6, 1]\nclass = versicolor", fillcolor="#5ae996"] ;
7 -> 8 ;
9 [label="gini = 0.0\nsamples = 1\nvalue = [0, 0, 1]\nclass = virginica", fillcolor="#8139e5"] ;
8 -> 9 ;
10 [label="gini = 0.0\nsamples = 4\nvalue = [0, 6, 0]\nclass = versicolor", fillcolor="#39e581"] ;
8 -> 10 ;
11 [label="gini = 0.0\nsamples = 2\nvalue = [0, 0, 3]\nclass = virginica", fillcolor="#8139e5"] ;
7 -> 11 ;
12 [label="gini = 0.0\nsamples = 28\nvalue = [0, 0, 43]\nclass = virginica", fillcolor="#8139e5"] ;
6 -> 12 ;
}